svm_type c_svc
kernel_type rbf
gamma 0.0833333
nr_class 2
total_sv 64
rho 0.472382
label 1 0
nr_sv 22 42
SV
1 1:1 2:1 3:1 4:6 5:8 6:2 7:14 8:1 9:1 10:0 11:2 12:0 
1 1:1 2:1 3:8 4:18 5:26 6:8 7:44 8:3 9:2 10:1 11:5 12:3 
1 1:1 2:1 3:3 4:2 5:12 6:10 7:14 8:2 9:2 10:0 11:4 12:0 
1 1:1 2:7 3:16 4:32 5:6 6:26 7:38 8:8 9:3 10:5 11:11 12:0 
1 1:1 2:1 3:4 4:13 5:10 6:3 7:23 8:2 9:2 10:0 11:4 12:0 
1 1:1 2:1 3:7 4:29 5:32 6:3 7:61 8:3 9:5 10:2 11:8 12:0 
1 1:2 2:1 3:10 4:104 5:126 6:22 7:230 8:1 9:9 10:8 11:10 12:0 
1 1:1 2:20 3:78 4:75 5:90 6:15 7:165 8:56 9:0 10:56 11:56 12:4 
1 1:1 2:1 3:1 4:3 5:1 6:2 7:4 8:1 9:0 10:1 11:1 12:0 
1 1:1 2:2 3:7 4:9 5:19 6:10 7:28 8:2 9:1 10:1 11:3 12:3 
1 1:1 2:4 3:12 4:47 5:99 6:52 7:146 8:2 9:8 10:6 11:10 12:1 
1 1:1 2:3 3:13 4:20 5:19 6:1 7:39 8:4 9:3 10:1 11:7 12:8 
1 1:0 2:1 3:2 4:1 5:2 6:1 7:3 8:1 9:0 10:1 11:1 12:2 
1 1:1 2:1 3:3 4:10 5:6 6:4 7:16 8:2 9:1 10:1 11:3 12:1 
1 1:1 2:2 3:4 4:13 5:1 6:12 7:14 8:2 9:1 10:1 11:3 12:0 
1 1:1 2:4 3:10 4:64 5:4 6:60 7:68 8:2 9:1 10:1 11:3 12:3 
1 1:1 2:4 3:14 4:15 5:10 6:5 7:25 8:5 9:3 10:2 11:8 12:0 
1 1:1 2:1 3:8 4:29 5:55 6:26 7:84 8:2 9:5 10:3 11:7 12:3 
1 1:0 2:9 3:14 4:1465 5:1517 6:52 7:2982 8:15 9:15 10:0 11:30 12:0 
1 1:1 2:2 3:2 4:2 5:2 6:0 7:4 8:0 9:2 10:2 11:2 12:0 
1 1:1 2:2 3:40 4:182 5:248 6:66 7:430 8:2 9:25 10:23 11:27 12:0 
1 1:1 2:1 3:1 4:4 5:4 6:0 7:8 8:1 9:2 10:1 11:3 12:0 
-0.5274056953299683 1:1 2:1 3:2 4:67 5:5 6:62 7:72 8:0 9:0 10:0 11:0 12:0 
-0.5274590668539935 1:1 2:3 3:23 4:4 5:157 6:153 7:161 8:0 9:12 10:12 11:12 12:5 
-0.5273800779439249 1:1 2:1 3:6 4:34 5:20 6:14 7:54 8:2 9:2 10:0 11:4 12:6 
-1 1:1 2:2 3:3 4:2 5:2 6:0 7:4 8:1 9:0 10:1 11:1 12:0 
-0.5273985687223428 1:1 2:4 3:7 4:101 5:125 6:24 7:226 8:7 9:5 10:2 11:12 12:6 
-0.5273963845233199 1:1 2:2 3:7 4:156 5:47 6:109 7:203 8:6 9:8 10:2 11:14 12:1 
-0.5273803630750141 1:1 2:9 3:10 4:588 5:257 6:331 7:845 8:52 9:23 10:29 11:75 12:0 
-0.003825017551661064 1:1 2:0 3:0 4:0 5:0 6:0 7:0 8:0 9:0 10:0 11:0 12:0 
-0.528079793308603 1:1 2:14 3:62 4:2468 5:60 6:2408 7:2528 8:37 9:0 10:37 11:37 12:4 
-0.5273963845233199 1:2 2:131 3:458 4:3628 5:4476 6:848 7:8104 8:35 9:58 10:23 11:93 12:41 
-0.528077260830445 1:1 2:2 3:5 4:22 5:31 6:9 7:53 8:0 9:1 10:1 11:1 12:0 
-0.528079793407805 1:1 2:1 3:15 4:45 5:43 6:2 7:88 8:3 9:3 10:0 11:6 12:0 
-0.5280759926718462 1:0 2:54 3:167 4:408 5:4334 6:3926 7:4742 8:3 9:27 10:24 11:30 12:20 
-0.5280759926718462 1:1 2:7 3:34 4:105 5:200 6:95 7:305 8:24 9:7 10:17 11:31 12:3 
-0.528076438300175 1:1 2:5 3:6 4:276 5:258 6:18 7:534 8:20 9:23 10:3 11:43 12:0 
-0.5280922923944442 1:1 2:8 3:9 4:10 5:16 6:6 7:26 8:0 9:1 10:1 11:1 12:0 
-0.5280759926718462 1:1 2:15 3:38 4:253 5:40 6:213 7:293 8:1 9:1 10:0 11:2 12:5 
-0.5273629413381947 1:1 2:4 3:7 4:26 5:3 6:23 7:29 8:10 9:6 10:4 11:16 12:0 
-0.5273946040375472 1:0 2:17 3:34 4:2538 5:81 6:2457 7:2619 8:32 9:0 10:32 11:32 12:0 
-0.528079793308603 1:1 2:16 3:45 4:678 5:97 6:581 7:775 8:3 9:0 10:3 11:3 12:2 
-0.5273792571313549 1:0 2:204 3:254 4:106 5:79 6:27 7:185 8:0 9:0 10:0 11:0 12:10 
-0.5274590668539935 1:0 2:6 3:18 4:171 5:55 6:116 7:226 8:5 9:0 10:5 11:5 12:2 
-0.528076438300175 1:2 2:2 3:3 4:49 5:4 6:45 7:53 8:8 9:0 10:8 11:8 12:1 
-0.5271478777823062 1:1 2:1 3:2 4:24 5:4 6:20 7:28 8:0 9:0 10:0 11:0 12:0 
-0.527378725213507 1:2 2:4 3:12 4:149 5:106 6:43 7:255 8:1 9:0 10:1 11:1 12:1 
-0.5273946040924741 1:1 2:5 3:11 4:173 5:33 6:140 7:206 8:12 9:2 10:10 11:14 12:1 
-0.5273792571313549 1:1 2:5 3:6 4:258 5:276 6:18 7:534 8:23 9:20 10:3 11:43 12:0 
-0.5273787252135975 1:1 2:9 3:25 4:825 5:190 6:635 7:1015 8:27 9:13 10:14 11:40 12:0 
-0.5273946040924741 1:1 2:21 3:63 4:379 5:564 6:185 7:943 8:5 9:0 10:5 11:5 12:3 
-1 1:1 2:1 3:1 4:2 5:1 6:1 7:3 8:1 9:0 10:1 11:1 12:0 
-0.5261563255818679 1:2 2:1 3:5 4:20 5:2 6:18 7:22 8:4 9:1 10:3 11:5 12:4 
-0.5280797930080927 1:1 2:2 3:4 4:33 5:3 6:30 7:36 8:0 9:0 10:0 11:0 12:1 
-0.5273818485622612 1:1 2:2 3:5 4:81 5:2 6:79 7:83 8:4 9:1 10:3 11:5 12:1 
-0.003809138617767216 1:1 2:7 3:34 4:200 5:105 6:95 7:305 8:7 9:24 10:17 11:31 12:3 
-0.5280764245592439 1:1 2:96 3:169 4:1164 5:5350 6:4186 7:6514 8:0 9:23 10:23 11:23 12:0 
-0.5280759926718462 1:0 2:64 3:193 4:3714 5:3303 6:411 7:7017 8:19 9:15 10:4 11:34 12:16 
-0.52358546541978 1:1 2:7 3:34 4:200 5:105 6:95 7:305 8:7 9:24 10:17 11:31 12:3 
-0.4757327373984266 1:1 2:0 3:0 4:0 5:0 6:0 7:0 8:0 9:0 10:0 11:0 12:0 
-0.5273818485622612 1:1 2:1 3:7 4:149 5:131 6:18 7:280 8:2 9:2 10:0 11:4 12:3 
-0.5280798037838441 1:2 2:8 3:8 4:632 5:0 6:632 7:632 8:71 9:0 10:71 11:71 12:0 
-0.5275787282557631 1:1 2:2 3:3 4:60 5:7 6:53 7:67 8:4 9:2 10:2 11:6 12:3 
-0.5259608843027084 1:1 2:2 3:4 4:19 5:2 6:17 7:21 8:0 9:0 10:0 11:0 12:0 
